digraph Tree {
node [shape=box, style="filled, rounded", color="black", fontname=helvetica] ;
edge [fontname=helvetica] ;
0 [label=<684 &le; 0.5<br/>gini = 0.5<br/>samples = 1500<br/>value = [744, 756]<br/>class = GRAPES>, fillcolor="#fcfdff"] ;
1 [label=<182 &le; 8.5<br/>gini = 0.439<br/>samples = 994<br/>value = [671, 323]<br/>class = ANT>, fillcolor="#f2be98"] ;
0 -> 1 [labeldistance=2.5, labelangle=45, headlabel="True"] ;
2 [label=<717 &le; 60.5<br/>gini = 0.342<br/>samples = 707<br/>value = [552, 155]<br/>class = ANT>, fillcolor="#eca471"] ;
1 -> 2 ;
3 [label=<123 &le; 12.5<br/>gini = 0.31<br/>samples = 678<br/>value = [548, 130]<br/>class = ANT>, fillcolor="#eb9f68"] ;
2 -> 3 ;
4 [label=<572 &le; 188.5<br/>gini = 0.275<br/>samples = 632<br/>value = [528, 104]<br/>class = ANT>, fillcolor="#ea9a60"] ;
3 -> 4 ;
5 [label=<585 &le; 61.0<br/>gini = 0.223<br/>samples = 541<br/>value = [472, 69]<br/>class = ANT>, fillcolor="#e99356"] ;
4 -> 5 ;
6 [label=<342 &le; 231.5<br/>gini = 0.194<br/>samples = 513<br/>value = [457, 56]<br/>class = ANT>, fillcolor="#e89051"] ;
5 -> 6 ;
7 [label=<330 &le; 41.5<br/>gini = 0.134<br/>samples = 387<br/>value = [359, 28]<br/>class = ANT>, fillcolor="#e78b48"] ;
6 -> 7 ;
8 [label=<568 &le; 200.5<br/>gini = 0.228<br/>samples = 191<br/>value = [166, 25]<br/>class = ANT>, fillcolor="#e99457"] ;
7 -> 8 ;
9 [label=<349 &le; 216.5<br/>gini = 0.175<br/>samples = 175<br/>value = [158, 17]<br/>class = ANT>, fillcolor="#e88f4e"] ;
8 -> 9 ;
10 [label=<439 &le; 225.5<br/>gini = 0.117<br/>samples = 144<br/>value = [135, 9]<br/>class = ANT>, fillcolor="#e78946"] ;
9 -> 10 ;
11 [label=<306 &le; 93.5<br/>gini = 0.02<br/>samples = 99<br/>value = [98, 1]<br/>class = ANT>, fillcolor="#e5823b"] ;
10 -> 11 ;
12 [label=<gini = 0.0<br/>samples = 84<br/>value = [84, 0]<br/>class = ANT>, fillcolor="#e58139"] ;
11 -> 12 ;
13 [label=<gini = 0.124<br/>samples = 15<br/>value = [14, 1]<br/>class = ANT>, fillcolor="#e78a47"] ;
11 -> 13 ;
14 [label=<313 &le; 180.0<br/>gini = 0.292<br/>samples = 45<br/>value = [37, 8]<br/>class = ANT>, fillcolor="#eb9c64"] ;
10 -> 14 ;
15 [label=<317 &le; 105.0<br/>gini = 0.064<br/>samples = 30<br/>value = [29, 1]<br/>class = ANT>, fillcolor="#e68540"] ;
14 -> 15 ;
16 [label=<gini = 0.124<br/>samples = 15<br/>value = [14, 1]<br/>class = ANT>, fillcolor="#e78a47"] ;
15 -> 16 ;
17 [label=<gini = 0.0<br/>samples = 15<br/>value = [15, 0]<br/>class = ANT>, fillcolor="#e58139"] ;
15 -> 17 ;
18 [label=<gini = 0.498<br/>samples = 15<br/>value = [8, 7]<br/>class = ANT>, fillcolor="#fcefe6"] ;
14 -> 18 ;
19 [label=<488 &le; 132.0<br/>gini = 0.383<br/>samples = 31<br/>value = [23, 8]<br/>class = ANT>, fillcolor="#eead7e"] ;
9 -> 19 ;
20 [label=<gini = 0.117<br/>samples = 16<br/>value = [15, 1]<br/>class = ANT>, fillcolor="#e78946"] ;
19 -> 20 ;
21 [label=<gini = 0.498<br/>samples = 15<br/>value = [8, 7]<br/>class = ANT>, fillcolor="#fcefe6"] ;
19 -> 21 ;
22 [label=<gini = 0.5<br/>samples = 16<br/>value = [8, 8]<br/>class = ANT>, fillcolor="#ffffff"] ;
8 -> 22 ;
23 [label=<423 &le; 252.0<br/>gini = 0.03<br/>samples = 196<br/>value = [193, 3]<br/>class = ANT>, fillcolor="#e5833c"] ;
7 -> 23 ;
24 [label=<gini = 0.0<br/>samples = 168<br/>value = [168, 0]<br/>class = ANT>, fillcolor="#e58139"] ;
23 -> 24 ;
25 [label=<gini = 0.191<br/>samples = 28<br/>value = [25, 3]<br/>class = ANT>, fillcolor="#e89051"] ;
23 -> 25 ;
26 [label=<284 &le; 214.5<br/>gini = 0.346<br/>samples = 126<br/>value = [98, 28]<br/>class = ANT>, fillcolor="#eca572"] ;
6 -> 26 ;
27 [label=<266 &le; 126.0<br/>gini = 0.235<br/>samples = 103<br/>value = [89, 14]<br/>class = ANT>, fillcolor="#e99558"] ;
26 -> 27 ;
28 [label=<459 &le; 8.5<br/>gini = 0.121<br/>samples = 77<br/>value = [72, 5]<br/>class = ANT>, fillcolor="#e78a47"] ;
27 -> 28 ;
29 [label=<gini = 0.363<br/>samples = 21<br/>value = [16, 5]<br/>class = ANT>, fillcolor="#eda877"] ;
28 -> 29 ;
30 [label=<gini = 0.0<br/>samples = 56<br/>value = [56, 0]<br/>class = ANT>, fillcolor="#e58139"] ;
28 -> 30 ;
31 [label=<gini = 0.453<br/>samples = 26<br/>value = [17, 9]<br/>class = ANT>, fillcolor="#f3c4a2"] ;
27 -> 31 ;
32 [label=<gini = 0.476<br/>samples = 23<br/>value = [9, 14]<br/>class = GRAPES>, fillcolor="#b8dcf6"] ;
26 -> 32 ;
33 [label=<gini = 0.497<br/>samples = 28<br/>value = [15, 13]<br/>class = ANT>, fillcolor="#fceee5"] ;
5 -> 33 ;
34 [label=<433 &le; 234.0<br/>gini = 0.473<br/>samples = 91<br/>value = [56, 35]<br/>class = ANT>, fillcolor="#f5d0b5"] ;
4 -> 34 ;
35 [label=<429 &le; 193.5<br/>gini = 0.337<br/>samples = 56<br/>value = [44, 12]<br/>class = ANT>, fillcolor="#eca36f"] ;
34 -> 35 ;
36 [label=<gini = 0.067<br/>samples = 29<br/>value = [28, 1]<br/>class = ANT>, fillcolor="#e68640"] ;
35 -> 36 ;
37 [label=<gini = 0.483<br/>samples = 27<br/>value = [16, 11]<br/>class = ANT>, fillcolor="#f7d8c1"] ;
35 -> 37 ;
38 [label=<355 &le; 29.0<br/>gini = 0.451<br/>samples = 35<br/>value = [12, 23]<br/>class = GRAPES>, fillcolor="#a0d0f3"] ;
34 -> 38 ;
39 [label=<gini = 0.469<br/>samples = 16<br/>value = [10, 6]<br/>class = ANT>, fillcolor="#f5cdb0"] ;
38 -> 39 ;
40 [label=<gini = 0.188<br/>samples = 19<br/>value = [2, 17]<br/>class = GRAPES>, fillcolor="#50a9e8"] ;
38 -> 40 ;
41 [label=<200 &le; 2.0<br/>gini = 0.491<br/>samples = 46<br/>value = [20, 26]<br/>class = GRAPES>, fillcolor="#d1e8f9"] ;
3 -> 41 ;
42 [label=<gini = 0.278<br/>samples = 24<br/>value = [4, 20]<br/>class = GRAPES>, fillcolor="#61b1ea"] ;
41 -> 42 ;
43 [label=<gini = 0.397<br/>samples = 22<br/>value = [16, 6]<br/>class = ANT>, fillcolor="#efb083"] ;
41 -> 43 ;
44 [label=<gini = 0.238<br/>samples = 29<br/>value = [4, 25]<br/>class = GRAPES>, fillcolor="#59ade9"] ;
2 -> 44 ;
45 [label=<350 &le; 23.5<br/>gini = 0.485<br/>samples = 287<br/>value = [119, 168]<br/>class = GRAPES>, fillcolor="#c5e2f7"] ;
1 -> 45 ;
46 [label=<320 &le; 175.5<br/>gini = 0.367<br/>samples = 91<br/>value = [69, 22]<br/>class = ANT>, fillcolor="#eda978"] ;
45 -> 46 ;
47 [label=<607 &le; 88.0<br/>gini = 0.21<br/>samples = 67<br/>value = [59, 8]<br/>class = ANT>, fillcolor="#e99254"] ;
46 -> 47 ;
48 [label=<gini = 0.0<br/>samples = 50<br/>value = [50, 0]<br/>class = ANT>, fillcolor="#e58139"] ;
47 -> 48 ;
49 [label=<gini = 0.498<br/>samples = 17<br/>value = [9, 8]<br/>class = ANT>, fillcolor="#fcf1e9"] ;
47 -> 49 ;
50 [label=<gini = 0.486<br/>samples = 24<br/>value = [10, 14]<br/>class = GRAPES>, fillcolor="#c6e3f8"] ;
46 -> 50 ;
51 [label=<394 &le; 0.5<br/>gini = 0.38<br/>samples = 196<br/>value = [50, 146]<br/>class = GRAPES>, fillcolor="#7dbfee"] ;
45 -> 51 ;
52 [label=<601 &le; 7.5<br/>gini = 0.208<br/>samples = 127<br/>value = [15, 112]<br/>class = GRAPES>, fillcolor="#54aae8"] ;
51 -> 52 ;
53 [label=<511 &le; 118.0<br/>gini = 0.406<br/>samples = 53<br/>value = [15, 38]<br/>class = GRAPES>, fillcolor="#87c4ef"] ;
52 -> 53 ;
54 [label=<465 &le; 102.5<br/>gini = 0.49<br/>samples = 35<br/>value = [15, 20]<br/>class = GRAPES>, fillcolor="#cee6f8"] ;
53 -> 54 ;
55 [label=<gini = 0.432<br/>samples = 19<br/>value = [13, 6]<br/>class = ANT>, fillcolor="#f1bb94"] ;
54 -> 55 ;
56 [label=<gini = 0.219<br/>samples = 16<br/>value = [2, 14]<br/>class = GRAPES>, fillcolor="#55abe9"] ;
54 -> 56 ;
57 [label=<gini = 0.0<br/>samples = 18<br/>value = [0, 18]<br/>class = GRAPES>, fillcolor="#399de5"] ;
53 -> 57 ;
58 [label=<gini = 0.0<br/>samples = 74<br/>value = [0, 74]<br/>class = GRAPES>, fillcolor="#399de5"] ;
52 -> 58 ;
59 [label=<289 &le; 163.0<br/>gini = 0.5<br/>samples = 69<br/>value = [35, 34]<br/>class = ANT>, fillcolor="#fefbf9"] ;
51 -> 59 ;
60 [label=<551 &le; 0.5<br/>gini = 0.368<br/>samples = 37<br/>value = [28, 9]<br/>class = ANT>, fillcolor="#edaa79"] ;
59 -> 60 ;
61 [label=<gini = 0.0<br/>samples = 17<br/>value = [17, 0]<br/>class = ANT>, fillcolor="#e58139"] ;
60 -> 61 ;
62 [label=<gini = 0.495<br/>samples = 20<br/>value = [11, 9]<br/>class = ANT>, fillcolor="#fae8db"] ;
60 -> 62 ;
63 [label=<433 &le; 225.0<br/>gini = 0.342<br/>samples = 32<br/>value = [7, 25]<br/>class = GRAPES>, fillcolor="#70b8ec"] ;
59 -> 63 ;
64 [label=<gini = 0.498<br/>samples = 15<br/>value = [7, 8]<br/>class = GRAPES>, fillcolor="#e6f3fc"] ;
63 -> 64 ;
65 [label=<gini = 0.0<br/>samples = 17<br/>value = [0, 17]<br/>class = GRAPES>, fillcolor="#399de5"] ;
63 -> 65 ;
66 [label=<682 &le; 6.5<br/>gini = 0.247<br/>samples = 506<br/>value = [73, 433]<br/>class = GRAPES>, fillcolor="#5aaee9"] ;
0 -> 66 [labeldistance=2.5, labelangle=-45, headlabel="False"] ;
67 [label=<685 &le; 22.5<br/>gini = 0.412<br/>samples = 169<br/>value = [49, 120]<br/>class = GRAPES>, fillcolor="#8ac5f0"] ;
66 -> 67 ;
68 [label=<gini = 0.278<br/>samples = 24<br/>value = [20, 4]<br/>class = ANT>, fillcolor="#ea9a61"] ;
67 -> 68 ;
69 [label=<687 &le; 2.5<br/>gini = 0.32<br/>samples = 145<br/>value = [29, 116]<br/>class = GRAPES>, fillcolor="#6ab6ec"] ;
67 -> 69 ;
70 [label=<267 &le; 110.5<br/>gini = 0.5<br/>samples = 47<br/>value = [23, 24]<br/>class = GRAPES>, fillcolor="#f7fbfe"] ;
69 -> 70 ;
71 [label=<gini = 0.255<br/>samples = 20<br/>value = [17, 3]<br/>class = ANT>, fillcolor="#ea975c"] ;
70 -> 71 ;
72 [label=<gini = 0.346<br/>samples = 27<br/>value = [6, 21]<br/>class = GRAPES>, fillcolor="#72b9ec"] ;
70 -> 72 ;
73 [label=<127 &le; 248.5<br/>gini = 0.115<br/>samples = 98<br/>value = [6, 92]<br/>class = GRAPES>, fillcolor="#46a3e7"] ;
69 -> 73 ;
74 [label=<375 &le; 28.0<br/>gini = 0.047<br/>samples = 83<br/>value = [2, 81]<br/>class = GRAPES>, fillcolor="#3e9fe6"] ;
73 -> 74 ;
75 [label=<gini = 0.231<br/>samples = 15<br/>value = [2, 13]<br/>class = GRAPES>, fillcolor="#57ace9"] ;
74 -> 75 ;
76 [label=<gini = 0.0<br/>samples = 68<br/>value = [0, 68]<br/>class = GRAPES>, fillcolor="#399de5"] ;
74 -> 76 ;
77 [label=<gini = 0.391<br/>samples = 15<br/>value = [4, 11]<br/>class = GRAPES>, fillcolor="#81c1ee"] ;
73 -> 77 ;
78 [label=<265 &le; 7.5<br/>gini = 0.132<br/>samples = 337<br/>value = [24, 313]<br/>class = GRAPES>, fillcolor="#48a5e7"] ;
66 -> 78 ;
79 [label=<711 &le; 62.5<br/>gini = 0.302<br/>samples = 81<br/>value = [15, 66]<br/>class = GRAPES>, fillcolor="#66b3eb"] ;
78 -> 79 ;
80 [label=<gini = 0.488<br/>samples = 26<br/>value = [11, 15]<br/>class = GRAPES>, fillcolor="#cae5f8"] ;
79 -> 80 ;
81 [label=<156 &le; 190.5<br/>gini = 0.135<br/>samples = 55<br/>value = [4, 51]<br/>class = GRAPES>, fillcolor="#49a5e7"] ;
79 -> 81 ;
82 [label=<gini = 0.0<br/>samples = 38<br/>value = [0, 38]<br/>class = GRAPES>, fillcolor="#399de5"] ;
81 -> 82 ;
83 [label=<gini = 0.36<br/>samples = 17<br/>value = [4, 13]<br/>class = GRAPES>, fillcolor="#76bbed"] ;
81 -> 83 ;
84 [label=<44 &le; 83.0<br/>gini = 0.068<br/>samples = 256<br/>value = [9, 247]<br/>class = GRAPES>, fillcolor="#40a1e6"] ;
78 -> 84 ;
85 [label=<434 &le; 38.0<br/>gini = 0.042<br/>samples = 233<br/>value = [5, 228]<br/>class = GRAPES>, fillcolor="#3d9fe6"] ;
84 -> 85 ;
86 [label=<493 &le; 19.0<br/>gini = 0.187<br/>samples = 48<br/>value = [5, 43]<br/>class = GRAPES>, fillcolor="#50a8e8"] ;
85 -> 86 ;
87 [label=<gini = 0.444<br/>samples = 15<br/>value = [5, 10]<br/>class = GRAPES>, fillcolor="#9ccef2"] ;
86 -> 87 ;
88 [label=<gini = 0.0<br/>samples = 33<br/>value = [0, 33]<br/>class = GRAPES>, fillcolor="#399de5"] ;
86 -> 88 ;
89 [label=<gini = 0.0<br/>samples = 185<br/>value = [0, 185]<br/>class = GRAPES>, fillcolor="#399de5"] ;
85 -> 89 ;
90 [label=<gini = 0.287<br/>samples = 23<br/>value = [4, 19]<br/>class = GRAPES>, fillcolor="#63b2ea"] ;
84 -> 90 ;
}